solver_type L2R_L2LOSS_RANKSVM
nr_class 2
nr_feature 136
bias -1
w
6.097484787805463e-06 
5.856894933393668e-06 
1.999939989689737e-05 
1.004478697212522e-05 
6.919321772985361e-06 
2.452545467379875e-06 
2.7381142919224e-06 
8.606468001891898e-06 
4.858994570302309e-06 
2.977583227809221e-06 
-5.448820462373344e-05 
9.000276232798541e-06 
-3.645238076736325e-05 
-4.791108055594598e-07 
-8.241941996384538e-05 
-1.098455213177897e-21 
-2.280302388291185e-21 
-7.134415837155583e-22 
-1.102728256072321e-21 
-4.5637835472656e-22 
0.0001381523864400177 
1.075222145760206e-05 
2.294049609450009e-05 
1.090806563193471e-05 
0.0001827531696240537 
5.500946803993689e-05 
4.763237959271532e-06 
1.073643108313212e-05 
4.269098317825715e-06 
7.663046812123308e-05 
4.292431077533067e-05 
5.864544404963758e-06 
8.949146166526851e-06 
6.14282437042957e-06 
6.198526557953931e-05 
5.436522131590339e-05 
5.460303988586843e-06 
1.033405068384894e-05 
5.263203391885151e-06 
7.542277902852207e-05 
-9.590074946511472e-06 
-5.697805469594739e-07 
8.52051821517748e-06 
4.849791070510269e-07 
-4.206205536064927e-05 
3.442171475893262e-07 
1.966897447331928e-06 
4.313963031544462e-06 
1.361617720340348e-06 
5.765582508735703e-07 
1.640847377422546e-07 
9.06738148689511e-07 
2.043728344724396e-06 
6.462786314770873e-07 
3.015055043349064e-07 
1.154404069633481e-07 
1.234071515101517e-06 
1.872025458130748e-06 
8.500939736368931e-07 
2.754394913510139e-07 
1.479615294953283e-07 
1.079928761690615e-06 
2.034310898380144e-06 
7.548929016021804e-07 
2.969256784062073e-07 
-2.369089307549029e-09 
4.631613728772728e-08 
-1.930299701139121e-08 
6.735038121712864e-09 
-1.826180753912765e-09 
0.0002799575717150877 
8.857097934781958e-05 
0.0001591084978451325 
9.066515421106559e-05 
0.0004351216507372098 
4.068373129145521e-05 
3.883770736512861e-05 
6.813112450610809e-05 
3.537081952119841e-05 
0.0001092380053230821 
5.658533558918166e-05 
5.375683628852823e-05 
7.243877397855513e-05 
5.737227291323873e-05 
0.0001435482032331554 
6.641436833097339e-05 
4.697411004822926e-05 
7.291594772709894e-05 
4.622747892766858e-05 
0.0001462225892019098 
-6.3826023566982e-06 
-1.092056361709971e-06 
-4.212523565746884e-06 
4.252101941112666e-05 
3.476236901776421e-06 
3.587753232464997e-06 
2.433292715411628e-06 
9.40842017288784e-06 
4.1195682148857e-06 
4.042586343492491e-06 
2.574471610339685e-06 
2.72793854244337e-06 
7.692058275712909e-06 
5.006539863076144e-06 
3.257018016971909e-06 
0.0001123283789027807 
5.176625735002214e-05 
0.000178840495204197 
8.978228523093433e-05 
0.0001322927454553071 
6.625596336281654e-05 
2.623303569667631e-05 
0.0001010496454815795 
4.171789610787153e-05 
7.65505123258181e-05 
4.13446380619305e-05 
8.198292252846372e-06 
2.916017199637905e-05 
1.687484803967271e-05 
4.698591056326452e-05 
6.341733732057594e-05 
3.226682489993795e-05 
0.0001357722961804922 
5.514544892546168e-05 
7.311014326384074e-05 
-2.503011887078527e-06 
1.18428796760249e-06 
-4.076984068908273e-11 
8.672810337938127e-05 
1.112283207693902e-06 
1.345095188404208e-06 
-6.897807295621533e-05 
-0.0002577311010515894 
7.553758575628085e-07 
-3.077695297710706e-07 
5.048473600366981e-10 
