solver_type L2R_L2LOSS_SVC_DUAL
nr_class 2
label 1 0
nr_feature 103
bias -1
w
0 
-0.001152088370330873 
0.0004103753425407086 
-0.003588716973508266 
0.003905850729963661 
-0.0005980781841170568 
0 
0 
0 
0 
0.0001734989127823855 
0 
0 
0.0001734989127823855 
0.0003171337564553955 
-0.001152088370330873 
0.000236876429758448 
0 
0.0001734989127823855 
0 
-0.003588716973508266 
0.002753762359632761 
0 
0 
0 
0 
0.000236876429758448 
0 
0 
0 
0 
0 
0 
0 
-0.003351840543749929 
0.002753762359632761 
0 
0 
0.0001734989127823855 
-0.004503928914080635 
0.003905850729963661 
0.0001734989127823855 
0 
0 
0 
0 
0.003905850729963661 
0 
0 
0 
0 
0 
0 
-0.001152088370330873 
0.0001734989127823855 
0 
-0.003351840543749929 
0 
0 
0 
0 
0 
-0.004503928914080635 
0.0001734989127823855 
0 
0.003905850729963661 
-0.0006614557010930777 
0 
0.000236876429758448 
0 
0 
0.003905850729963661 
-0.004330430001298236 
0.0005540101862138158 
-0.0009785894575484455 
0.00316413770217347 
-0.003588716973508266 
0 
0 
-0.0006614557010930777 
0.000236876429758448 
0 
-0.0006614557010930777 
0 
0 
0 
0 
0 
0 
0 
0 
0 
0 
0 
0 
0 
0 
0 
0 
0 
0 
0 
0.000236876429758448 
